const MODEL_WEIGHTS = [{"w": [[-0.6268397569656372, -0.7583954930305481, -0.3684677481651306, -0.28897854685783386, -0.026848571375012398, -0.11497543007135391, -1.021023154258728, 0.29042747616767883, 0.21994784474372864, -1.0385422706604004, -0.15841256082057953, 0.02214241586625576, 1.2531689405441284, -0.3131153881549835], [-0.7312096357345581, 0.3549870550632477, -0.4356660544872284, 0.1777627170085907, 0.36402907967567444, -0.39471524953842163, -0.8607839941978455, 0.5703827738761902, 0.13501285016536713, -0.2813769578933716, -0.17377646267414093, 0.03227240592241287, 0.15418806672096252, -0.4314918518066406], [-0.7424020171165466, -0.6613484621047974, -0.6912086009979248, -0.32964178919792175, 0.12134980410337448, 0.9142112135887146, -1.0879119634628296, -0.5621399283409119, -0.24649474024772644, 1.1112439632415771, -0.14300726354122162, 0.08697398006916046, -0.9010912775993347, -0.8143938779830933], [0.301723837852478, 0.20620819926261902, 0.0035857507027685642, 0.9192975163459778, 0.6878354549407959, -0.5388245582580566, -0.5175607204437256, -0.9662560820579529, -0.24429883062839508, 0.1353650987148285, -0.3241018056869507, 0.10947063565254211, -0.30765828490257263, -0.45745983719825745], [0.3645349442958832, -0.1374080777168274, -0.25724664330482483, -0.20370152592658997, 0.15653468668460846, -0.2578403353691101, -0.08310839533805847, -0.395934134721756, 1.131087303161621, -0.24586832523345947, 0.6567061543464661, 0.11035885661840439, -0.3368813097476959, -0.7013895511627197], [0.31064629554748535, 0.1024889424443245, 0.012907971628010273, -0.16206136345863342, -0.029881928116083145, -0.22974734008312225, 0.07108859717845917, -0.2547586262226105, 0.7887051701545715, -0.12987278401851654, 0.3752736449241638, 0.04639635980129242, -0.2471563071012497, -0.8334312438964844], [0.12301281094551086, 0.308062881231308, 0.7078992128372192, 0.03277923911809921, -0.4331655204296112, 0.01939261704683304, 0.43298235535621643, 0.3879201114177704, -0.2639867067337036, 0.0338689349591732, -0.3336033821105957, 0.12111495435237885, 0.23654724657535553, -0.7030652761459351], [0.09167121350765228, 0.12538869678974152, 0.3966085910797119, -0.07099325954914093, -0.33370670676231384, 0.09204818308353424, 0.507269561290741, 0.3944886028766632, -0.39436984062194824, 0.10562925785779953, -0.3106890618801117, 0.14901529252529144, 0.3339921534061432, -0.7540577054023743], [-0.3138149678707123, 0.2526441216468811, -0.14338724315166473, 0.9750272035598755, 0.8424820303916931, -0.5462359189987183, -0.7319976091384888, -0.21013961732387543, -0.2458624243736267, -0.3397999703884125, -0.13111300766468048, 0.09010124951601028, -0.32304564118385315, -0.5510948300361633], [-0.922019362449646, 0.08140302449464798, -0.4345532953739166, 0.8074625730514526, 0.9553036093711853, -0.2716825008392334, -0.7037277817726135, 0.5985434055328369, -0.2222592979669571, -0.4990147352218628, -0.12048644572496414, 0.07032401114702225, -0.20731240510940552, -0.5053998827934265], [0.34972503781318665, -0.1314939558506012, -0.38333624601364136, -0.26232627034187317, 0.009802592918276787, -0.29214242100715637, -0.004491331055760384, -0.41694560647010803, 1.2975205183029175, -0.20361360907554626, 0.6233950257301331, 0.12242289632558823, -0.44053107500076294, -0.2530241310596466], [0.20548924803733826, -0.1364162713289261, -0.17385339736938477, -0.12324093282222748, 0.003582236124202609, -0.09019309282302856, -0.0595596581697464, -0.3098268210887909, 0.5923989415168762, -0.12411636859178543, 0.47628578543663025, -0.08058170229196548, -0.24415571987628937, 0.9200224280357361], [0.42244070768356323, -0.2538718283176422, -0.06339054554700851, 0.05308213457465172, 0.20764188468456268, 0.3840579688549042, 0.2346615493297577, -0.5622890591621399, -0.21296633780002594, 0.03159887716174126, 0.9224917888641357, -1.4504300355911255, -0.28676700592041016, -0.33564189076423645], [-0.4351389408111572, -0.8570333123207092, -0.5463205575942993, -0.36210617423057556, 0.03842451050877571, 0.10108216851949692, -0.4890790581703186, 0.36803939938545227, 0.08142486959695816, -0.8437141180038452, -0.11544694006443024, 0.03153485804796219, 1.020384430885315, -0.26195988059043884], [0.42618605494499207, -0.22524043917655945, 0.0036073250230401754, 0.022876331582665443, 0.058507341891527176, 0.4243451952934265, 0.3257598280906677, -0.53982013463974, -0.449146568775177, 0.035207539796829224, 0.9966827034950256, -1.5387589931488037, -0.12568922340869904, -0.5745341181755066], [0.1918734908103943, 0.05942753329873085, -0.07405981421470642, 0.6104505062103271, 0.4148293733596802, -0.3349623680114746, -0.3788248300552368, -0.7121288180351257, -0.13532646000385284, 0.13769356906414032, -0.1456199288368225, 0.03161422908306122, -0.1826901137828827, -0.38372740149497986], [-0.7470323443412781, 0.18296638131141663, -0.3173622190952301, 0.8073161244392395, 0.9643726944923401, -0.4355064034461975, -0.7472907900810242, 0.6148281693458557, -0.21361905336380005, -0.5214878916740417, -0.1543104201555252, 0.015152692794799805, -0.19167517125606537, -0.3491678535938263], [-0.20176558196544647, -0.9733526706695557, -1.0142652988433838, -0.5207614302635193, 0.2601231634616852, 0.6335620880126953, -0.0032612248323857784, 0.5301432609558105, -0.3008066713809967, 0.12981872260570526, -0.18749582767486572, 0.009098225273191929, 0.010054530575871468, -0.529427170753479], [-0.1438727080821991, -0.14354662597179413, -0.22368881106376648, -0.017326291650533676, 0.08363454043865204, -0.014652451500296593, -0.22232958674430847, -0.08624804019927979, 0.19937638938426971, 0.01772174797952175, 0.1343286782503128, 0.13314753770828247, -0.18955762684345245, 1.6878561973571777], [-0.6563272476196289, 0.23913662135601044, -0.7989242076873779, -0.5937740206718445, 0.06366755813360214, -0.0897098258137703, -0.9658600687980652, 0.6315602660179138, 0.3498166799545288, -0.1179443821310997, -0.17244824767112732, 0.07567179203033447, 0.38113877177238464, -0.7223895788192749], [-0.6172746419906616, 0.6694512367248535, -0.8508799076080322, -0.49076148867607117, 0.10910024493932724, -0.08427663147449493, -0.854285717010498, 0.5893563628196716, 0.3111889362335205, 0.33858537673950195, -0.234680637717247, 0.03855257108807564, -0.02500320039689541, -0.6182262897491455], [-0.23222215473651886, -0.05799664184451103, -0.15893927216529846, 0.08250293135643005, 0.09378337860107422, -0.06849329173564911, -0.27270010113716125, 0.01161444466561079, -0.0188509039580822, 0.0018934928812086582, -0.02254902943968773, 0.042921364307403564, -0.11126434057950974, 1.644907832145691], [0.4803605377674103, 0.3063424527645111, 0.6755670309066772, 0.2398855835199356, -0.3058837652206421, -0.2238636165857315, 0.4882486164569855, -0.20995570719242096, -0.12164643406867981, 0.004282173700630665, -0.06058051064610481, -0.033650901168584824, 0.13866305351257324, -0.5913333296775818], [-0.8331036567687988, 0.27679240703582764, -0.6630265116691589, -0.36871927976608276, 0.07504570484161377, -0.23706622421741486, -1.204921007156372, 0.41233861446380615, 0.3723588287830353, -0.45514580607414246, -0.18596406280994415, 0.06191082298755646, 0.6471862196922302, -0.599939227104187], [-0.19225314259529114, 0.1428757607936859, -0.25529587268829346, 0.9286791682243347, 0.8580920100212097, -0.48248520493507385, -0.7790105938911438, -0.45146235823631287, -0.14574597775936127, -0.10915043205022812, -0.17226572334766388, 0.14484766125679016, -0.3503549098968506, -0.22277238965034485], [0.44422647356987, 0.34032905101776123, 0.6734339594841003, 0.3331359326839447, -0.17221079766750336, -0.199210062623024, 0.4459206163883209, -0.22625499963760376, -0.030861081555485725, 0.018994605168700218, 0.13161219656467438, -0.10510587692260742, 0.004018179140985012, 0.3275982439517975], [-0.19537796080112457, -0.07067926228046417, -0.16100527346134186, 0.018571950495243073, 0.06884536147117615, 0.025443892925977707, -0.22845058143138885, -0.1251705139875412, -0.025215333327651024, 0.04497784003615379, 0.06448172777891159, 0.034860819578170776, -0.02639724686741829, 1.6290724277496338], [-0.26679906249046326, -0.8689409494400024, -1.1085246801376343, -0.4721738398075104, 0.3038414716720581, 0.4746728241443634, 0.07645471394062042, 0.8617916703224182, -0.31815487146377563, -0.06763245910406113, -0.18302910029888153, 0.011603469029068947, 0.2871689200401306, -0.5430007576942444], [0.3898179829120636, -0.24201323091983795, -0.07017633318901062, 0.03253982216119766, 0.1787373423576355, 0.37305963039398193, 0.22782228887081146, -0.5405133366584778, -0.26076939702033997, 0.0461282916367054, 0.8255515098571777, -1.3063175678253174, -0.2233562022447586, -0.4827643930912018], [0.3361148536205292, -0.16335220634937286, -0.31852126121520996, -0.33139142394065857, 0.09259133785963058, -0.22215138375759125, -0.037894926965236664, -0.378303587436676, 1.2331247329711914, -0.19920723140239716, 0.6322919726371765, 0.09168392419815063, -0.4954110085964203, -0.4268874228000641], [-0.7450504899024963, -0.6166089177131653, -0.6739692091941833, -0.3065418601036072, 0.11628682166337967, 0.8754566311836243, -1.094699740409851, -0.6014692187309265, -0.23646175861358643, 1.1210161447525024, -0.12720927596092224, 0.08589670807123184, -0.8999401330947876, -0.7415329217910767], [-0.5326775312423706, 0.4115827679634094, -0.5168778896331787, -0.3659951984882355, -0.02048690989613533, 0.17161741852760315, -0.8557761907577515, 0.07198429107666016, 0.0966651514172554, 0.5836442708969116, -0.14889225363731384, 0.09462089091539383, -0.33536726236343384, -0.3553474545478821]], "b": [-0.04089510813355446, -0.018720468506217003, -0.10620827227830887, -0.36767083406448364, -0.2924326956272125, -0.10979858785867691, -0.5562125444412231, -0.3739562928676605, -0.07424647361040115, -0.4666205942630768, -0.27787864208221436, -0.014188788831233978, -0.15919211506843567, 0.006285835523158312, -0.26762112975120544, -0.06341566145420074, -0.5795403122901917, -0.10404809564352036, -0.28178733587265015, -0.15522828698158264, -0.5845434069633484, -0.2132740616798401, -0.09678994119167328, -0.001972661819308996, -0.03569745272397995, -0.22669613361358643, -0.258855402469635, -0.41100266575813293, -0.10789655148983002, -0.16117344796657562, -0.08852759748697281, 0.030168285593390465]}, {"w": [[0.5232036709785461, 0.2566298842430115, -0.5110830664634705, 0.29869547486305237, -0.23918266594409943, -0.1751975417137146, -0.6860488057136536, -0.7185763120651245, 0.3562197983264923, 0.19746968150138855, -0.638028621673584, -0.3308131992816925, 0.4564213752746582, 0.3554385304450989, -0.04471128061413765, 0.547773003578186, 0.11549288779497147, -0.6672548651695251, -0.6256997585296631, 0.25629937648773193, -0.6209269165992737, -0.48953568935394287, 0.05354660004377365, 0.38418933749198914, 0.3854729235172272, 0.022957468405365944, -0.8754842281341553, -0.3120552897453308, 0.41951391100883484, -0.4952181279659271, -0.4284287393093109, -0.5008955001831055], [0.45595505833625793, 0.09746179729700089, -0.688732922077179, -0.5104097723960876, -0.508171796798706, -0.14681372046470642, 0.1592305451631546, 0.16557054221630096, 0.09940282255411148, 0.40857982635498047, -0.7421093583106995, -0.3084676265716553, 0.32236000895500183, -0.023896485567092896, 0.5696901679039001, -0.24289529025554657, 0.4352754056453705, -0.9426906108856201, -0.9530470371246338, -0.5873701572418213, -1.1132705211639404, -0.6037481427192688, 0.0796586200594902, -0.14835374057292938, 0.07520727813243866, 0.04337499663233757, -0.6964812874794006, -0.9664385914802551, 0.3437017798423767, -0.5882195830345154, -0.6825321316719055, -0.5709338784217834], [-0.10708211362361908, 0.403206467628479, 0.3562644124031067, -0.6019508838653564, -0.35155731439590454, -0.5231664776802063, -0.7073413133621216, -0.19696350395679474, 0.18804097175598145, 0.4734898805618286, -0.47662317752838135, -0.6922280788421631, -0.41576623916625977, 0.018678778782486916, -0.4277286231517792, -0.5626591444015503, 0.565994143486023, 0.14362414181232452, -0.4298136532306671, 0.01717246137559414, -0.09925282746553421, -0.39449387788772583, -0.9075899124145508, 0.08821279555559158, 0.05270005390048027, -0.703022301197052, -0.6379834413528442, 0.20028817653656006, -0.3605171740055084, -0.19082887470722198, 0.341861754655838, 0.0008682542247697711], [-0.423449844121933, -0.7841373682022095, 0.3384072482585907, -0.7215784192085266, -0.2589224874973297, 0.019857123494148254, 0.1714877039194107, 0.3761492967605591, -0.4683373272418976, 0.36273565888404846, -0.17360827326774597, -0.06005222350358963, 0.3145981431007385, -0.10847145318984985, 0.2861863672733307, -0.7360439300537109, -0.1392117291688919, 0.4984646141529083, -0.8970810770988464, -0.890734851360321, -0.8879597187042236, -1.1374547481536865, 0.015147507190704346, -1.204256296157837, -0.6650581955909729, -0.022792184725403786, -0.7679778337478638, 0.3245338201522827, 0.35630786418914795, 0.07492349296808243, 0.20800097286701202, -0.015412922948598862], [0.2547455132007599, 0.18535630404949188, -0.8430122137069702, -0.46549129486083984, -0.057070162147283554, 0.009012979455292225, -0.43495669960975647, -0.5562418699264526, -1.0800297260284424, -0.3345858156681061, 0.026785364374518394, 0.3704798221588135, 0.5522390007972717, -0.015043537132441998, 0.2275158017873764, -0.28089621663093567, -0.5294616222381592, -0.664705753326416, 0.1318492293357849, 0.6043274402618408, 0.38474786281585693, 0.11095046997070312, -0.07256689667701721, 0.5112466216087341, -0.6971532106399536, 0.03397752717137337, 0.13133183121681213, -0.48157235980033875, 0.37908631563186646, 0.176236093044281, -0.8251404762268066, -0.02359485626220703], [-0.11125457286834717, -1.0943037271499634, 0.3369302749633789, 0.2839072048664093, -0.7210559844970703, -0.667199969291687, -0.5151131749153137, -0.4311864674091339, -0.05849072337150574, -0.9016157984733582, -0.56569904088974, -0.005135007202625275, 0.29808875918388367, 0.15019801259040833, 0.3860074281692505, 0.44733676314353943, -1.0063722133636475, 0.5703351497650146, 0.2142547070980072, -0.5029184222221375, -0.5521970987319946, 0.29602837562561035, -0.00730519462376833, -0.7558865547180176, 0.12894095480442047, 0.03658227249979973, 0.3577862083911896, 0.23590509593486786, 0.40484365820884705, -0.5519413948059082, 0.3492221534252167, 0.07988674193620682], [0.17375154793262482, -0.22166094183921814, -0.9098979830741882, 1.0588144063949585, -0.3878585994243622, -0.0032406223472207785, 0.09945549815893173, 0.2458338886499405, -0.22462540864944458, -0.5318652987480164, -0.8371889591217041, -0.5562397837638855, -0.8849567174911499, 0.3389550447463989, -0.803816020488739, 0.4411287307739258, -0.6029952764511108, 0.3208804726600647, -0.7491661906242371, 0.5175265073776245, -0.20669664442539215, -0.7333179712295532, 0.109718918800354, 0.21894797682762146, -0.1278185099363327, 0.01616489700973034, -0.7239900231361389, 0.5170616507530212, -0.7710806727409363, -0.6031311750411987, -0.968380868434906, -0.4036085605621338], [0.13429489731788635, -0.9179346561431885, 0.6812955141067505, 0.08572988957166672, 0.022656483575701714, 0.2718643546104431, 0.25713232159614563, -0.06288851052522659, -0.17336533963680267, -0.9321717619895935, 0.07476494461297989, 0.13132604956626892, -0.09388920664787292, -0.3768047094345093, -0.4944295883178711, 0.43339234590530396, -1.0151493549346924, -0.5674326419830322, -0.006347022019326687, -0.6616988778114319, -0.5144060850143433, -0.15066184103488922, 0.2102779895067215, -0.5822007060050964, -0.023815978318452835, 0.12538747489452362, -0.14830000698566437, -0.807491660118103, -0.16055923700332642, 0.054476749151945114, 0.7032337188720703, 0.038745030760765076], [0.2732342779636383, 0.02291022427380085, -0.9075875878334045, -0.7135289311408997, 0.38700175285339355, 0.3001461327075958, 0.12300445884466171, 0.16189061105251312, -0.9293599724769592, -0.12598684430122375, 0.27373555302619934, -0.12244033813476562, -0.996646523475647, 0.30855879187583923, -1.1390879154205322, -0.6646344065666199, -0.29576346278190613, 0.05096226930618286, -0.40503478050231934, -0.04171564429998398, -0.620570957660675, -0.8185552358627319, 0.05384767800569534, 0.045582350343465805, -0.9408538937568665, -0.03031277097761631, -0.7898142337799072, 0.016362516209483147, -1.1071345806121826, 0.3264538645744324, -0.9534487724304199, -0.6281483769416809], [-0.22846780717372894, -0.08905354887247086, 0.3581777811050415, -0.3651229739189148, 0.47785860300064087, 0.15766340494155884, -0.46010521054267883, -0.7260218858718872, 0.20279091596603394, 0.47318851947784424, 0.5079415440559387, 0.1473911851644516, -0.5770158767700195, -0.4195170998573303, -0.9287384748458862, -0.21509459614753723, 0.4822191894054413, 0.0905008465051651, 0.018560227006673813, -0.8993287682533264, -0.7175455689430237, -0.006702724378556013, -0.1471778005361557, -0.5725502967834473, 0.26683908700942993, -0.007542314939200878, -0.04462939128279686, -0.5303335785865784, -0.7182503342628479, 0.438394695520401, 0.29067403078079224, -0.04044073075056076], [0.18751250207424164, -0.12379621714353561, -1.0891976356506348, -0.6098571419715881, -0.7619019746780396, -0.5893840193748474, 0.261240154504776, 0.3411039710044861, -0.5917317271232605, 0.07965435087680817, -0.3210821747779846, 0.04217780753970146, -0.7710870504379272, 0.2934875190258026, -0.5887067914009094, -0.8134546279907227, -0.1975560486316681, 0.2629433274269104, 0.2541504502296448, -0.19097639620304108, -0.9733670353889465, 0.20757335424423218, -0.04640048369765282, -0.08456211537122726, -0.5579186081886292, 0.01310048159211874, 0.24138082563877106, 0.3469603359699249, -0.7836950421333313, -0.3891720473766327, -1.163048267364502, -0.7947964668273926], [-0.4625704884529114, -0.06368175148963928, 0.027254214510321617, -0.46601027250289917, -0.4245809018611908, -0.5206536650657654, -0.7236108183860779, 0.19018980860710144, -1.144914150238037, -0.044012829661369324, -0.19358758628368378, -0.6336027979850769, -0.16935917735099792, -0.2705630958080292, -0.34625035524368286, 0.1701364517211914, -0.43008705973625183, 0.19057922065258026, -0.34687650203704834, 0.055519044399261475, 0.3109719753265381, -0.33932486176490784, -1.2950057983398438, -0.28598296642303467, -0.48199760913848877, -1.3795182704925537, -0.20103804767131805, 0.09475826472043991, 0.03259031102061272, -0.0103150624781847, 0.1142694428563118, 0.27040040493011475], [-1.1012728214263916, 0.03659619390964508, 0.3786914348602295, 0.19095630943775177, -0.38485661149024963, 0.11432941257953644, 0.22497808933258057, 0.024065183475613594, 0.1421361118555069, -0.26712101697921753, -0.7394679188728333, -0.5994874835014343, -0.718985378742218, -1.257173776626587, -0.8402838110923767, 0.5294463634490967, -0.27234113216400146, -0.34608861804008484, -0.7018393874168396, 0.2456739842891693, 0.5817107558250427, -0.44994184374809265, 0.11045195907354355, 0.12758119404315948, 0.18775644898414612, 0.03885875269770622, -0.8372008204460144, -0.7313324213027954, -0.5868667960166931, -0.5425474643707275, 0.31460240483283997, 0.37419742345809937], [-0.7108038663864136, 0.16999073326587677, -1.0617551803588867, -0.035183947533369064, -0.4907539188861847, -0.40068453550338745, 0.18964365124702454, 0.19565053284168243, 0.2779447138309479, 0.19162404537200928, -0.2012377381324768, -0.012200257740914822, -0.6111797094345093, -0.873119056224823, -0.7540228366851807, 0.04213438928127289, 0.13885420560836792, -0.7019443511962891, 0.2122555673122406, -0.4240998327732086, 0.37598779797554016, 0.3176298439502716, -0.03738654404878616, -0.32575732469558716, 0.24840740859508514, 0.0555461123585701, 0.24669618904590607, -0.5061996579170227, -0.7759074568748474, -0.31915149092674255, -0.9573546648025513, -0.09719083458185196], [-0.4605391323566437, -0.6245678663253784, -1.1898198127746582, 0.11473555117845535, 0.264065682888031, 0.3418397009372711, -0.6352726817131042, -0.18770872056484222, 0.1957191675901413, -0.5607662200927734, 0.1426781713962555, 0.10358209162950516, 0.16441506147384644, -0.16062121093273163, 0.06253884732723236, 0.3895350992679596, -0.6022855639457703, 0.25109273195266724, -0.5283576250076294, -0.42632734775543213, -0.43149250745773315, -1.0143924951553345, 0.010445830412209034, -1.0251579284667969, 0.1658870279788971, 0.004476383328437805, -0.8369652032852173, 0.9039493799209595, 0.18973174691200256, 0.24443605542182922, -1.240677833557129, -0.31053125858306885], [-1.1877135038375854, 0.14604294300079346, -1.0498383045196533, -0.8354324102401733, -0.8874533176422119, 0.055002860724925995, 0.059749096632003784, 0.09017550200223923, -1.08510422706604, -0.3098490238189697, -0.9922873377799988, -0.24746404588222504, -0.034112803637981415, -1.3865224123001099, 0.02337775006890297, -0.9004292488098145, -0.32370805740356445, -0.887827455997467, -0.6321734189987183, 0.23101691901683807, 0.3504316210746765, -0.4496946334838867, 0.11301921308040619, 0.13133256137371063, -1.3433657884597778, 0.08079929649829865, -0.40846920013427734, -0.9699382781982422, 0.11079809814691544, -0.7516765594482422, -1.0363340377807617, 0.16678935289382935]], "b": [0.35623279213905334, 0.4595736563205719, 0.7580630779266357, 0.5887796878814697, 0.39515379071235657, 0.5030357241630554, 0.443809449672699, 0.44791266322135925, 0.4927348792552948, 0.5112406015396118, 0.5137002468109131, 0.7039204239845276, 0.3865238130092621, 0.522558331489563, 0.4711272120475769, 0.45664849877357483]}, {"w": [[-0.551880955696106, -0.6026289463043213, 0.5562471747398376, 0.7545127272605896, -0.7380945086479187, 0.619731068611145, -0.5537056922912598, 0.5493780970573425, -0.7151808142662048, 0.5890329480171204, -0.6673789620399475, 0.9454132914543152, 0.594776451587677, -0.847141683101654, -0.902068555355072, -0.6669493317604065], [0.6314306259155273, 0.22362084686756134, 0.6138418912887573, -0.8947524428367615, 0.5773856043815613, -0.5761623382568359, 0.7993714809417725, -0.42939072847366333, 1.0154794454574585, -0.6317309737205505, 0.7698731422424316, -0.12211918085813522, -1.052732229232788, -0.9388916492462158, -0.9515739679336548, -0.6890941858291626], [-0.6334116458892822, 0.8175310492515564, -0.6635523438453674, 0.7644413113594055, -0.46868696808815, -0.3230428695678711, 0.6168486475944519, 0.6024770140647888, 0.9042438268661499, -0.27833250164985657, 0.8892149925231934, -0.8613027930259705, 0.7203548550605774, 0.7183095812797546, -0.12009865790605545, 1.3365873098373413], [0.6914224624633789, 0.23521454632282257, -0.6682539582252502, -0.7440330982208252, -0.7086073756217957, 0.42028167843818665, 0.9112428426742554, 0.5163803696632385, -0.7795429825782776, 0.2691188156604767, -0.6830665469169617, -0.601374089717865, 0.901888906955719, 0.6186652183532715, 0.9081444144248962, -1.0417566299438477], [0.24553906917572021, 0.7984256148338318, -0.5195143818855286, 0.7836834788322449, 0.5177348852157593, 0.42238709330558777, -0.7862704992294312, 0.22973713278770447, -1.0143282413482666, -0.8557337522506714, -0.6432791948318481, -0.5530253052711487, -1.0429418087005615, -0.7547438144683838, 0.7397188544273376, 0.94059157371521], [-0.494872123003006, -0.5706414580345154, 0.5516200661659241, 0.6770936846733093, -0.676469087600708, 0.31553637981414795, 0.7065830826759338, -1.0135712623596191, 0.7066707611083984, -0.0399937778711319, 0.953167736530304, 1.0019294023513794, -0.6454868316650391, -0.18547390401363373, 0.8126720786094666, -0.6730826497077942], [0.5703476667404175, 0.8288450837135315, 0.5530489683151245, -0.056655239313840866, -0.8644096255302429, -0.9469526410102844, -0.6773303151130676, -1.2775664329528809, -0.7330969572067261, 0.7604483366012573, -0.17437106370925903, -0.8128648400306702, 0.24243776500225067, 0.8197879791259766, -0.37976086139678955, -0.7125588059425354], [-0.6683792471885681, -0.9777522087097168, -0.6864798069000244, 0.21052932739257812, 0.4248203933238983, -1.1968367099761963, -0.6454505920410156, 0.5649064779281616, 0.9410722851753235, 0.7097331881523132, -0.7572422623634338, -0.893998384475708, -0.6277545690536499, -0.36768096685409546, 0.8586517572402954, -0.6401147842407227], [-0.15771862864494324, -0.9815290570259094, 0.4892190098762512, -0.819534957408905, 0.6155300140380859, -0.8355485796928406, 0.09836862981319427, -0.8641352653503418, -0.35334253311157227, -0.6105760931968689, -0.7141336798667908, 0.8258612751960754, 0.7231224775314331, 0.15467669069766998, -0.5308579802513123, 1.4292241334915161], [-0.8373271226882935, -0.801953136920929, -0.6449345350265503, -0.7255034446716309, 0.6352978944778442, 0.6158208250999451, -0.5749943852424622, 0.31454890966415405, -0.6704226136207581, 0.5003858208656311, 1.042506217956543, -0.665797233581543, -1.0960630178451538, 0.9001301527023315, -0.8681005239486694, -0.20364104211330414]], "b": [-0.12480559945106506, 0.14088794589042664, -1.0361144542694092, -0.596622884273529, 0.19512858986854553, -0.5883587002754211, 0.5239335894584656, 0.8231290578842163, 0.4543527364730835, 0.47692421078681946]}];
